<?xml version="1.0"?>
<opencv_storage>
<cascade>
  <stageType>BOOST</stageType>
  <featureType>HAAR</featureType>
  <height>24</height>
  <width>24</width>
  <stageParams>
    <boostType>GAB</boostType>
    <minHitRate>9.9500000476837158e-01</minHitRate>
    <maxFalseAlarm>5.0000000000000000e-01</maxFalseAlarm>
    <weightTrimRate>9.4999998807907104e-01</weightTrimRate>
    <maxDepth>1</maxDepth>
    <maxWeakCount>100</maxWeakCount></stageParams>
  <featureParams>
    <maxCatCount>0</maxCatCount>
    <featSize>1</featSize>
    <mode>BASIC</mode></featureParams>
  <stageNum>26</stageNum>
  <stages>
    <!-- stage 0 -->
    <_>
      <maxWeakCount>2</maxWeakCount>
      <stageThreshold>-3.0365374684333801e-01</stageThreshold>
      <weakClassifiers>
        <_>
          <internalNodes>
            0 -1 158 1.6559062898159027e-01</internalNodes>
          <leafValues>
            -8.8495576381683350e-01 9.2739272117614746e-01</leafValues></_>
        <_>
          <internalNodes>
            0 -1 117 6.6691741347312927e-02</internalNodes>
          <leafValues>
            -9.2050272226333618e-01 5.8130204677581787e-01</leafValues></_></weakClassifiers></_>
    <!-- stage 1 -->
    <_>
      <maxWeakCount>2</maxWeakCount>
      <stageThreshold>-1.8540112674236298e-01</stageThreshold>
      <weakClassifiers>
        <_>
          <internalNodes>
            0 -1 107 2.8076404333114624e-01</internalNodes>
          <leafValues>
            -6.7543858289718628e-01 7.8073090314865112e-01</leafValues></_>
        <_>
          <internalNodes>
            0 -1 188 3.3270668238401413e-02</internalNodes>
          <leafValues>
            -8.1224429607391357e-01 4.9003747105598450e-01</leafValues></_></weakClassifiers></_>
    <!-- stage 2 -->
    <_>
      <maxWeakCount>5</maxWeakCount>
      <stageThreshold>-9.5517575740814209e-01</stageThreshold>
      <weakClassifiers>
        <_>
          <internalNodes>
            0 -1 168 9.9421918392181396e-02</internalNodes>
          <leafValues>
            -8.0898874998092651e-01 6.4102566242218018e-01</leafValues></_>
        <_>
          <internalNodes>
            0 -1 64 3.2741721719503403e-02</internalNodes>
          <leafValues>
            -4.7190254926681519e-01 7.2981238365173340e-01</leafValues></_>
        <_>
          <internalNodes>
            0 -1 6 4.1662910953164101e-03</internalNodes>
          <leafValues>
            4.1706916689872742e-01 -8.0123448371887207e-01</leafValues></_>
        <_>
          <internalNodes>
            0 -1 143 -6.3775494694709778e-02</internalNodes>
          <leafValues>
            7.2729563713073730e-01 -4.0569654107093811e-01</leafValues></_>
        <_>
          <internalNodes>
            0 -1 167 -1.6471790149807930e-03</internalNodes>
          <leafValues>
            -9.5462292432785034e-01 3.1434291601181030e-01</leafValues></_></weakClassifiers></_>
    <!-- stage 3 -->
    <_>
      <maxWeakCount>6</maxWeakCount>
      <stageThreshold>-1.0234766006469727e+00</stageThreshold>
      <weakClassifiers>
        <_>
          <internalNodes>
            0 -1 142 1.4867267012596130e-01</internalNodes>
          <leafValues>
            -6.0869562625885010e-01 7.3913043737411499e-01</leafValues></_>
        <_>
          <internalNodes>
            0 -1 156 2.7972147800028324e-03</internalNodes>
          <leafValues>
            4.2800846695899963e-01 -8.2776832580566406e-01</leafValues></_>
        <_>
          <internalNodes>
            0 -1 44 -2.8984204400330782e-03</internalNodes>
          <leafValues>
            -8.3439403772354126e-01 3.4955719113349915e-01</leafValues></_>
        <_>
          <internalNodes>
            0 -1 12 -3.4933420829474926e-03</internalNodes>
          <leafValues>
            -9.7290039062500000e-01 2.6718989014625549e-01</leafValues></_>
        <_>
          <internalNodes>
            0 -1 22 4.2888429015874863e-02</internalNodes>
          <leafValues>
            -5.0691497325897217e-01 5.7798546552658081e-01</leafValues></_>
        <_>
          <internalNodes>
            0 -1 7 4.4548092409968376e-03</internalNodes>
          <leafValues>
            3.0315515398979187e-01 -8.6872810125350952e-01</leafValues></_></weakClassifiers></_>
    <!-- stage 4 -->
    <_>
      <maxWeakCount>7</maxWeakCount>
      <stageThreshold>-7.6069098711013794e-01</stageThreshold>
      <weakClassifiers>
        <_>
          <internalNodes>
            0 -1 26 4.3426558375358582e-02</internalNodes>
          <leafValues>
            -5.2380955219268799e-01 6.7785233259201050e-01</leafValues></_>
        <_>
          <internalNodes>
            0 -1 123 3.2314431667327881e-01</internalNodes>
          <leafValues>
            -2.9359355568885803e-01 8.7799197435379028e-01</leafValues></_>
        <_>
          <internalNodes>
            0 -1 20 2.3234754335135221e-03</internalNodes>
          <leafValues>
            3.8027155399322510e-01 -7.8438073396682739e-01</leafValues></_>
        <_>
          <internalNodes>
            0 -1 58 2.7644126676023006e-03</internalNodes>
          <leafValues>
            2.5336983799934387e-01 -8.4282362461090088e-01</leafValues></_>
        <_>
          <internalNodes>
            0 -1 90 3.3511943183839321e-03</internalNodes>
          <leafValues>
            2.1255317330360413e-01 -9.5502352714538574e-01</leafValues></_>
        <_>
          <internalNodes>
            0 -1 105 -1.0833153501152992e-03</internalNodes>
          <leafValues>
            -8.9272624254226685e-01 1.7407177388668060e-01</leafValues></_>
        <_>
          <internalNodes>
            0 -1 149 1.1933307396247983e-03</internalNodes>
          <leafValues>
            2.0109800994396210e-01 -9.0667033195495605e-01</leafValues></_></weakClassifiers></_>
    <!-- stage 5 -->
    <_>
      <maxWeakCount>5</maxWeakCount>
      <stageThreshold>-3.8853618502616882e-01</stageThreshold>
      <weakClassifiers>
        <_>
          <internalNodes>
            0 -1 108 3.7625366449356079e-01</internalNodes>
          <leafValues>
            -3.9923954010009766e-01 6.9924813508987427e-01</leafValues></_>
        <_>
          <internalNodes>
            0 -1 122 1.8818562384694815e-03</internalNodes>
          <leafValues>
            3.3953207731246948e-01 -8.6205631494522095e-01</leafValues></_>
        <_>
          <internalNodes>
            0 -1 46 2.5590326637029648e-02</internalNodes>
          <leafValues>
            -5.2762109041213989e-01 4.5795649290084839e-01</leafValues></_>
        <_>
          <internalNodes>
            0 -1 11 -5.5299196392297745e-03</internalNodes>
          <leafValues>
            -9.7068583965301514e-01 2.5202286243438721e-01</leafValues></_>
        <_>
          <internalNodes>
            0 -1 91 -1.6691568307578564e-03</internalNodes>
          <leafValues>
            -9.0005612373352051e-01 1.6278028488159180e-01</leafValues></_></weakClassifiers></_>
    <!-- stage 6 -->
    <_>
      <maxWeakCount>7</maxWeakCount>
      <stageThreshold>-9.7708266973495483e-01</stageThreshold>
      <weakClassifiers>
        <_>
          <internalNodes>
            0 -1 13 3.9233155548572540e-02</internalNodes>
          <leafValues>
            -5.2777779102325439e-01 6.2300318479537964e-01</leafValues></_>
        <_>
          <internalNodes>
            0 -1 139 3.1563322991132736e-03</internalNodes>
          <leafValues>
            3.4881353378295898e-01 -7.9513496160507202e-01</leafValues></_>
        <_>
          <internalNodes>
            0 -1 148 -6.4460262656211853e-03</internalNodes>
          <leafValues>
            -8.8088721036911011e-01 2.5316032767295837e-01</leafValues></_>
        <_>
          <internalNodes>
            0 -1 125 8.0091506242752075e-04</internalNodes>
          <leafValues>
            1.9975601136684418e-01 -7.5051915645599365e-01</leafValues></_>
        <_>
          <internalNodes>
            0 -1 4 -4.7176191583275795e-03</internalNodes>
          <leafValues>
            -9.0195530652999878e-01 2.4140574038028717e-01</leafValues></_>
        <_>
          <internalNodes>
            0 -1 151 1.1360980570316315e-02</internalNodes>
          <leafValues>
            3.0385521054267883e-01 -5.8052074909210205e-01</leafValues></_>
        <_>
          <internalNodes>
            0 -1 177 2.3909593001008034e-03</internalNodes>
          <leafValues>
            2.3202873766422272e-01 -7.9954510927200317e-01</leafValues></_></weakClassifiers></_>
    <!-- stage 7 -->
    <_>
      <maxWeakCount>9</maxWeakCount>
      <stageThreshold>-7.7022922039031982e-01</stageThreshold>
      <weakClassifiers>
        <_>
          <internalNodes>
            0 -1 65 2.0467773079872131e-02</internalNodes>
          <leafValues>
            -5.7073169946670532e-01 6.1111110448837280e-01</leafValues></_>
        <_>
          <internalNodes>
            0 -1 96 1.0144564509391785e-01</internalNodes>
          <leafValues>
            -3.7754356861114502e-01 6.7394804954528809e-01</leafValues></_>
        <_>
          <internalNodes>
            0 -1 39 -3.2150824554264545e-03</internalNodes>
          <leafValues>
            -7.5796890258789063e-01 3.2804936170578003e-01</leafValues></_>
        <_>
          <internalNodes>
            0 -1 157 1.6724286833778024e-03</internalNodes>
          <leafValues>
            2.5463348627090454e-01 -8.0824375152587891e-01</leafValues></_>
        <_>
          <internalNodes>
            0 -1 115 1.0504811070859432e-03</internalNodes>
          <leafValues>
            1.5255956351757050e-01 -8.1311923265457153e-01</leafValues></_>
        <_>
          <internalNodes>
            0 -1 185 2.5135334581136703e-03</internalNodes>
          <leafValues>
            2.0145571231842041e-01 -7.6293331384658813e-01</leafValues></_>
        <_>
          <internalNodes>
            0 -1 72 -6.9130570627748966e-03</internalNodes>
          <leafValues>
            -9.1247564554214478e-01 1.6214878857135773e-01</leafValues></_>
        <_>
          <internalNodes>
            0 -1 41 1.0438085347414017e-01</internalNodes>
          <leafValues>
            -2.5894388556480408e-01 8.5556834936141968e-01</leafValues></_>
        <_>
          <internalNodes>
            0 -1 100 1.2942602625116706e-03</internalNodes>
          <leafValues>
            4.2416128516197205e-01 -5.2533531188964844e-01</leafValues></_></weakClassifiers></_>
    <!-- stage 8 -->
    <_>
      <maxWeakCount>8</maxWeakCount>
      <stageThreshold>-4.7469937801361084e-01</stageThreshold>
      <weakClassifiers>
        <_>
          <internalNodes>
            0 -1 59 2.7573928236961365e-02</internalNodes>
          <leafValues>
            -5.3913044929504395e-01 6.8561875820159912e-01</leafValues></_>
        <_>
          <internalNodes>
            0 -1 79 3.3085778355598450e-01</internalNodes>
          <leafValues>
            -3.8237118721008301e-01 5.9501886367797852e-01</leafValues></_>
        <_>
          <internalNodes>
            0 -1 199 -4.6379729174077511e-03</internalNodes>
          <leafValues>
            -7.3501574993133545e-01 2.7604496479034424e-01</leafValues></_>
        <_>
          <internalNodes>
            0 -1 223 -1.3537431368604302e-03</internalNodes>
          <leafValues>
            -7.4772191047668457e-01 2.0887812972068787e-01</leafValues></_>
        <_>
          <internalNodes>
            0 -1 153 -3.0786769930273294e-03</internalNodes>
          <leafValues>
            -8.6652272939682007e-01 1.3018569350242615e-01</leafValues></_>
        <_>
          <internalNodes>
            0 -1 129 5.1433376967906952e-02</internalNodes>
          <leafValues>
            -2.0381920039653778e-01 8.3117550611495972e-01</leafValues></_>
        <_>
          <internalNodes>
            0 -1 130 -3.3676475286483765e-02</internalNodes>
          <leafValues>
            8.9102196693420410e-01 -1.7485430836677551e-01</leafValues></_>
        <_>
          <internalNodes>
            0 -1 141 2.2227489389479160e-03</internalNodes>
          <leafValues>
            2.4403761327266693e-01 -8.6237758398056030e-01</leafValues></_></weakClassifiers></_>
    <!-- stage 9 -->
    <_>
      <maxWeakCount>11</maxWeakCount>
      <stageThreshold>-1.1747007369995117e+00</stageThreshold>
      <weakClassifiers>
        <_>
          <internalNodes>
            0 -1 17 4.1873238980770111e-02</internalNodes>
          <leafValues>
            -4.6017700433731079e-01 6.1056107282638550e-01</leafValues></_>
        <_>
          <internalNodes>
            0 -1 150 -3.4861003514379263e-03</internalNodes>
          <leafValues>
            -8.3398050069808960e-01 2.4294193089008331e-01</leafValues></_>
        <_>
          <internalNodes>
            0 -1 77 -7.5961709022521973e-02</internalNodes>
          <leafValues>
            5.4201424121856689e-01 -4.3063971400260925e-01</leafValues></_>
        <_>
          <internalNodes>
            0 -1 213 4.2385210690554231e-05</internalNodes>
          <leafValues>
            -7.9913181066513062e-01 2.4580438435077667e-01</leafValues></_>
        <_>
          <internalNodes>
            0 -1 103 -2.3485021665692329e-03</internalNodes>
          <leafValues>
            -8.7105673551559448e-01 1.1808688193559647e-01</leafValues></_>
        <_>
          <internalNodes>
            0 -1 138 2.0792477298527956e-03</internalNodes>
          <leafValues>
            1.6792790591716766e-01 -8.0265122652053833e-01</leafValues></_>
        <_>
          <internalNodes>
            0 -1 109 -5.3847596049308777e-02</internalNodes>
          <leafValues>
            7.1351641416549683e-01 -2.2726535797119141e-01</leafValues></_>
        <_>
          <internalNodes>
            0 -1 81 -7.3391492478549480e-03</internalNodes>
          <leafValues>
            7.4644511938095093e-01 -2.0833982527256012e-01</leafValues></_>
        <_>
          <internalNodes>
            0 -1 98 1.7149749910458922e-03</internalNodes>
          <leafValues>
            3.4880229830741882e-01 -5.4482680559158325e-01</leafValues></_>
        <_>
          <internalNodes>
            0 -1 211 5.5964046623557806e-04</internalNodes>
          <leafValues>
            3.0193135142326355e-01 -5.7184380292892456e-01</leafValues></_>
        <_>
          <internalNodes>
            0 -1 83 2.1168706938624382e-02</internalNodes>
          <leafValues>
            -3.0319443345069885e-01 5.1700669527053833e-01</leafValues></_></weakClassifiers></_>
    <!-- stage 10 -->
    <_>
      <maxWeakCount>8</maxWeakCount>
      <stageThreshold>-7.8427219390869141e-01</stageThreshold>
      <weakClassifiers>
        <_>
          <internalNodes>
            0 -1 84 -1.2050393968820572e-02</internalNodes>
          <leafValues>
            6.9172930717468262e-01 -3.9163497090339661e-01</leafValues></_>
        <_>
          <internalNodes>
            0 -1 165 -6.3711684197187424e-03</internalNodes>
          <leafValues>
            4.2945340275764465e-01 -4.0715521574020386e-01</leafValues></_>
        <_>
          <internalNodes>
            0 -1 25 7.9859318211674690e-03</internalNodes>
          <leafValues>
            -7.4513047933578491e-01 2.5844261050224304e-01</leafValues></_>
        <_>
          <internalNodes>
            0 -1 9 1.4756642049178481e-03</internalNodes>
          <leafValues>
            2.9562482237815857e-01 -6.3481807708740234e-01</leafValues></_>
        <_>
          <internalNodes>
            0 -1 133 2.8554752469062805e-02</internalNodes>
          <leafValues>
            -3.0525013804435730e-01 6.1558753252029419e-01</leafValues></_>
        <_>
          <internalNodes>
            0 -1 76 -2.9413206502795219e-03</internalNodes>
          <leafValues>
            -8.7748366594314575e-01 2.1253079175949097e-01</leafValues></_>
        <_>
          <internalNodes>
            0 -1 69 -1.8906057812273502e-04</internalNodes>
          <leafValues>
            4.7473484277725220e-01 -3.3540806174278259e-01</leafValues></_>
        <_>
          <internalNodes>
            0 -1 116 1.0623325360938907e-03</internalNodes>
          <leafValues>
            1.6844959557056427e-01 -8.4888648986816406e-01</leafValues></_></weakClassifiers></_>
    <!-- stage 11 -->
    <_>
      <maxWeakCount>7</maxWeakCount>
      <stageThreshold>-5.9103399515151978e-01</stageThreshold>
      <weakClassifiers>
        <_>
          <internalNodes>
            0 -1 19 3.6272071301937103e-02</internalNodes>
          <leafValues>
            -7.1653544902801514e-01 4.2786070704460144e-01</leafValues></_>
        <_>
          <internalNodes>
            0 -1 35 8.6844069883227348e-03</internalNodes>
          <leafValues>
            -6.1920487880706787e-01 3.5685345530509949e-01</leafValues></_>
        <_>
          <internalNodes>
            0 -1 23 1.9554795324802399e-01</internalNodes>
          <leafValues>
            -7.9082864522933960e-01 2.9120758175849915e-01</leafValues></_>
        <_>
          <internalNodes>
            0 -1 49 3.4950459375977516e-03</internalNodes>
          <leafValues>
            4.0146246552467346e-01 -4.8686102032661438e-01</leafValues></_>
        <_>
          <internalNodes>
            0 -1 62 -3.6018122918903828e-03</internalNodes>
          <leafValues>
            -9.2783629894256592e-01 2.0544156432151794e-01</leafValues></_>
        <_>
          <internalNodes>
            0 -1 63 -1.8772160634398460e-02</internalNodes>
          <leafValues>
            6.5054047107696533e-01 -3.8404694199562073e-01</leafValues></_>
        <_>
          <internalNodes>
            0 -1 101 2.1051084622740746e-03</internalNodes>
          <leafValues>
            2.1952340006828308e-01 -8.6651945114135742e-01</leafValues></_></weakClassifiers></_>
    <!-- stage 12 -->
    <_>
      <maxWeakCount>8</maxWeakCount>
      <stageThreshold>-7.3183816671371460e-01</stageThreshold>
      <weakClassifiers>
        <_>
          <internalNodes>
            0 -1 16 6.8609036505222321e-02</internalNodes>
          <leafValues>
            -3.0944624543190002e-01 7.9279279708862305e-01</leafValues></_>
        <_>
          <internalNodes>
            0 -1 175 -9.5922630862332880e-05</internalNodes>
          <leafValues>
            5.4442924261093140e-01 -3.7589585781097412e-01</leafValues></_>
        <_>
          <internalNodes>
            0 -1 197 2.7118409052491188e-03</internalNodes>
          <leafValues>
            -8.3757507801055908e-01 2.5767517089843750e-01</leafValues></_>
        <_>
          <internalNodes>
            0 -1 68 -1.8700262298807502e-03</internalNodes>
          <leafValues>
            8.1944072246551514e-01 -2.7663168311119080e-01</leafValues></_>
        <_>
          <internalNodes>
            0 -1 21 2.3640207946300507e-03</internalNodes>
          <leafValues>
            3.2929623126983643e-01 -5.8939707279205322e-01</leafValues></_>
        <_>
          <internalNodes>
            0 -1 220 2.0524876890704036e-04</internalNodes>
          <leafValues>
            -2.9299685359001160e-01 6.8259584903717041e-01</leafValues></_>
        <_>
          <internalNodes>
            0 -1 201 5.8710342273116112e-05</internalNodes>
          <leafValues>
            -2.7100554108619690e-01 6.4808589220046997e-01</leafValues></_>
        <_>
          <internalNodes>
            0 -1 42 -1.0451560840010643e-02</internalNodes>
          <leafValues>
            -9.4585096836090088e-01 2.0716655254364014e-01</leafValues></_></weakClassifiers></_>
    <!-- stage 13 -->
    <_>
      <maxWeakCount>10</maxWeakCount>
      <stageThreshold>-8.5909616947174072e-01</stageThreshold>
      <weakClassifiers>
        <_>
          <internalNodes>
            0 -1 95 2.0739657804369926e-02</internalNodes>
          <leafValues>
            -3.3828997611999512e-01 6.6153848171234131e-01</leafValues></_>
        <_>
          <internalNodes>
            0 -1 174 -2.2579059077543207e-05</internalNodes>
          <leafValues>
            3.9234936237335205e-01 -3.8609191775321960e-01</leafValues></_>
        <_>
          <internalNodes>
            0 -1 106 -5.3369561210274696e-03</internalNodes>
          <leafValues>
            -9.3525391817092896e-01 1.7646260559558868e-01</leafValues></_>
        <_>
          <internalNodes>
            0 -1 193 1.5996542060747743e-04</internalNodes>
          <leafValues>
            -3.3590537309646606e-01 4.8383963108062744e-01</leafValues></_>
        <_>
          <internalNodes>
            0 -1 217 -2.2579059077543207e-05</internalNodes>
          <leafValues>
            7.3407363891601563e-01 -2.3896569013595581e-01</leafValues></_>
        <_>
          <internalNodes>
            0 -1 204 3.8114038761705160e-03</internalNodes>
          <leafValues>
            1.9727627933025360e-01 -7.5414091348648071e-01</leafValues></_>
        <_>
          <internalNodes>
            0 -1 136 -7.8671539085917175e-05</internalNodes>
          <leafValues>
            5.9763067960739136e-01 -2.6090034842491150e-01</leafValues></_>
        <_>
          <internalNodes>
            0 -1 56 2.0459413528442383e-02</internalNodes>
          <leafValues>
            -1.8528273701667786e-01 9.5939397811889648e-01</leafValues></_>
        <_>
          <internalNodes>
            0 -1 75 2.6016198098659515e-03</internalNodes>
          <leafValues>
            -8.0879741907119751e-01 2.4474872648715973e-01</leafValues></_>
        <_>
          <internalNodes>
            0 -1 207 1.7751652922015637e-04</internalNodes>
          <leafValues>
            -2.7678790688514709e-01 6.2918841838836670e-01</leafValues></_></weakClassifiers></_>
    <!-- stage 14 -->
    <_>
      <maxWeakCount>9</maxWeakCount>
      <stageThreshold>-9.4348978996276855e-01</stageThreshold>
      <weakClassifiers>
        <_>
          <internalNodes>
            0 -1 127 5.7165730744600296e-02</internalNodes>
          <leafValues>
            6.2500000000000000e-01 -6.6839379072189331e-01</leafValues></_>
        <_>
          <internalNodes>
            0 -1 119 3.3369380980730057e-03</internalNodes>
          <leafValues>
            2.3009157180786133e-01 -7.3546737432479858e-01</leafValues></_>
        <_>
          <internalNodes>
            0 -1 110 -1.7833087593317032e-02</internalNodes>
          <leafValues>
            3.8877201080322266e-01 -3.7888038158416748e-01</leafValues></_>
        <_>
          <internalNodes>
            0 -1 155 4.1022663936018944e-03</internalNodes>
          <leafValues>
            3.9661985635757446e-01 -4.4061526656150818e-01</leafValues></_>
        <_>
          <internalNodes>
            0 -1 121 6.3870265148580074e-04</internalNodes>
          <leafValues>
            2.5826653838157654e-01 -6.3393586874008179e-01</leafValues></_>
        <_>
          <internalNodes>
            0 -1 180 -2.6346854865550995e-03</internalNodes>
          <leafValues>
            -7.6194328069686890e-01 1.5431094169616699e-01</leafValues></_>
        <_>
          <internalNodes>
            0 -1 162 -2.5858793407678604e-02</internalNodes>
          <leafValues>
            4.9657401442527771e-01 -3.5395932197570801e-01</leafValues></_>
        <_>
          <internalNodes>
            0 -1 102 1.3631680049002171e-03</internalNodes>
          <leafValues>
            2.0456789433956146e-01 -7.6918017864227295e-01</leafValues></_>
        <_>
          <internalNodes>
            0 -1 225 -6.5625063143670559e-04</internalNodes>
          <leafValues>
            -8.8954752683639526e-01 1.3014103472232819e-01</leafValues></_></weakClassifiers></_>
    <!-- stage 15 -->
    <_>
      <maxWeakCount>11</maxWeakCount>
      <stageThreshold>-8.6602693796157837e-01</stageThreshold>
      <weakClassifiers>
        <_>
          <internalNodes>
            0 -1 8 1.0138994082808495e-02</internalNodes>
          <leafValues>
            -4.3956044316291809e-01 4.6397694945335388e-01</leafValues></_>
        <_>
          <internalNodes>
            0 -1 198 9.1781392693519592e-03</internalNodes>
          <leafValues>
            -1.7348320782184601e-01 8.5752320289611816e-01</leafValues></_>
        <_>
          <internalNodes>
            0 -1 0 -2.2843654733151197e-03</internalNodes>
          <leafValues>
            -8.3470493555068970e-01 2.2940644621849060e-01</leafValues></_>
        <_>
          <internalNodes>
            0 -1 202 1.4425853267312050e-02</internalNodes>
          <leafValues>
            -2.5615921616554260e-01 7.2730290889739990e-01</leafValues></_>
        <_>
          <internalNodes>
            0 -1 111 2.8298869729042053e-03</internalNodes>
          <leafValues>
            -3.8113996386528015e-01 3.9025908708572388e-01</leafValues></_>
        <_>
          <internalNodes>
            0 -1 126 -1.3122567906975746e-02</internalNodes>
          <leafValues>
            5.9436231851577759e-01 -2.7081349492073059e-01</leafValues></_>
        <_>
          <internalNodes>
            0 -1 104 4.8201918601989746e-01</internalNodes>
          <leafValues>
            -4.2875960469245911e-01 4.0646883845329285e-01</leafValues></_>
        <_>
          <internalNodes>
            0 -1 192 -1.0307075455784798e-02</internalNodes>
          <leafValues>
            7.2659003734588623e-01 -2.4995897710323334e-01</leafValues></_>
        <_>
          <internalNodes>
            0 -1 60 -5.6320130825042725e-03</internalNodes>
          <leafValues>
            -8.9974105358123779e-01 2.2074386477470398e-01</leafValues></_>
        <_>
          <internalNodes>
            0 -1 172 -3.6733475280925632e-04</internalNodes>
          <leafValues>
            4.7512477636337280e-01 -3.4114494919776917e-01</leafValues></_>
        <_>
          <internalNodes>
            0 -1 215 7.1388298238161951e-05</internalNodes>
          <leafValues>
            -3.7572878599166870e-01 3.8961416482925415e-01</leafValues></_></weakClassifiers></_>
    <!-- stage 16 -->
    <_>
      <maxWeakCount>10</maxWeakCount>
      <stageThreshold>-6.2450325489044189e-01</stageThreshold>
      <weakClassifiers>
        <_>
          <internalNodes>
            0 -1 164 -1.3752205297350883e-02</internalNodes>
          <leafValues>
            5.5333334207534790e-01 -3.7117904424667358e-01</leafValues></_>
        <_>
          <internalNodes>
            0 -1 37 6.9327489472925663e-04</internalNodes>
          <leafValues>
            -7.1037399768829346e-01 2.3218134045600891e-01</leafValues></_>
        <_>
          <internalNodes>
            0 -1 73 1.5835475176572800e-02</internalNodes>
          <leafValues>
            1.7715691030025482e-01 -7.2996348142623901e-01</leafValues></_>
        <_>
          <internalNodes>
            0 -1 48 -1.4428472146391869e-02</internalNodes>
          <leafValues>
            2.6595088839530945e-01 -4.5977166295051575e-01</leafValues></_>
        <_>
          <internalNodes>
            0 -1 27 2.2940300405025482e-02</internalNodes>
          <leafValues>
            -1.8710283935070038e-01 6.9535881280899048e-01</leafValues></_>
        <_>
          <internalNodes>
            0 -1 205 -4.4557424262166023e-03</internalNodes>
          <leafValues>
            -8.8735437393188477e-01 1.3734249770641327e-01</leafValues></_>
        <_>
          <internalNodes>
            0 -1 47 6.3341356813907623e-02</internalNodes>
          <leafValues>
            -2.0161168277263641e-01 7.1560209989547729e-01</leafValues></_>
        <_>
          <internalNodes>
            0 -1 32 -1.5430575236678123e-02</internalNodes>
          <leafValues>
            4.6409684419631958e-01 -3.1644213199615479e-01</leafValues></_>
        <_>
          <internalNodes>
            0 -1 3 -1.7530348850414157e-04</internalNodes>
          <leafValues>
            3.6137527227401733e-01 -3.9046162366867065e-01</leafValues></_>
        <_>
          <internalNodes>
            0 -1 214 3.3196802251040936e-03</internalNodes>
          <leafValues>
            -6.5906912088394165e-01 1.8494594097137451e-01</leafValues></_></weakClassifiers></_>
    <!-- stage 17 -->
    <_>
      <maxWeakCount>14</maxWeakCount>
      <stageThreshold>-8.3698600530624390e-01</stageThreshold>
      <weakClassifiers>
        <_>
          <internalNodes>
            0 -1 128 7.5756246224045753e-03</internalNodes>
          <leafValues>
            -2.6470589637756348e-01 5.9533071517944336e-01</leafValues></_>
        <_>
          <internalNodes>
            0 -1 36 1.5858639031648636e-02</internalNodes>
          <leafValues>
            -1.9151514768600464e-01 6.0307198762893677e-01</leafValues></_>
        <_>
          <internalNodes>
            0 -1 196 1.2524934718385339e-03</internalNodes>
          <leafValues>
            3.8324308395385742e-01 -3.5039016604423523e-01</leafValues></_>
        <_>
          <internalNodes>
            0 -1 30 3.2628487795591354e-02</internalNodes>
          <leafValues>
            -2.1884641051292419e-01 6.6605013608932495e-01</leafValues></_>
        <_>
          <internalNodes>
            0 -1 200 3.7899785675108433e-03</internalNodes>
          <leafValues>
            1.8669448792934418e-01 -9.1089820861816406e-01</leafValues></_>
        <_>
          <internalNodes>
            0 -1 118 3.2578494399785995e-02</internalNodes>
          <leafValues>
            -3.1603774428367615e-01 3.8422694802284241e-01</leafValues></_>
        <_>
          <internalNodes>
            0 -1 1 7.6509155333042145e-03</internalNodes>
          <leafValues>
            1.6277965903282166e-01 -8.8896089792251587e-01</leafValues></_>
        <_>
          <internalNodes>
            0 -1 203 -2.3318965759244747e-05</internalNodes>
          <leafValues>
            4.8416131734848022e-01 -2.5126004219055176e-01</leafValues></_>
        <_>
          <internalNodes>
            0 -1 61 3.3358822111040354e-04</internalNodes>
          <leafValues>
            -4.6060246229171753e-01 2.5146690011024475e-01</leafValues></_>
        <_>
          <internalNodes>
            0 -1 24 -2.0901621319353580e-03</internalNodes>
          <leafValues>
            -8.1382328271865845e-01 1.5027241408824921e-01</leafValues></_>
        <_>
          <internalNodes>
            0 -1 147 -2.4951118975877762e-03</internalNodes>
          <leafValues>
            -7.9672318696975708e-01 1.4469262957572937e-01</leafValues></_>
        <_>
          <internalNodes>
            0 -1 113 -6.6735039581544697e-05</internalNodes>
          <leafValues>
            4.8511341214179993e-01 -2.8221160173416138e-01</leafValues></_>
        <_>
          <internalNodes>
            0 -1 14 1.5122880041599274e-01</internalNodes>
          <leafValues>
            -1.4416319131851196e-01 8.7870311737060547e-01</leafValues></_>
        <_>
          <internalNodes>
            0 -1 112 -7.6291017467156053e-04</internalNodes>
          <leafValues>
            -5.4595571756362915e-01 2.8623807430267334e-01</leafValues></_></weakClassifiers></_>
    <!-- stage 18 -->
    <_>
      <maxWeakCount>10</maxWeakCount>
      <stageThreshold>-5.3637069463729858e-01</stageThreshold>
      <weakClassifiers>
        <_>
          <internalNodes>
            0 -1 152 -1.7644658684730530e-02</internalNodes>
          <leafValues>
            4.4692736864089966e-01 -4.6198830008506775e-01</leafValues></_>
        <_>
          <internalNodes>
            0 -1 120 4.1415184736251831e-01</internalNodes>
          <leafValues>
            -3.5474294424057007e-01 4.0270030498504639e-01</leafValues></_>
        <_>
          <internalNodes>
            0 -1 82 -2.0486870780587196e-02</internalNodes>
          <leafValues>
            6.0846912860870361e-01 -2.1203418076038361e-01</leafValues></_>
        <_>
          <internalNodes>
            0 -1 55 1.6030712286010385e-03</internalNodes>
          <leafValues>
            2.9570502042770386e-01 -4.2213553190231323e-01</leafValues></_>
        <_>
          <internalNodes>
            0 -1 51 4.2661909013986588e-02</internalNodes>
          <leafValues>
            -1.9219641387462616e-01 4.9955371022224426e-01</leafValues></_>
        <_>
          <internalNodes>
            0 -1 76 1.8783234991133213e-03</internalNodes>
          <leafValues>
            1.0636370629072189e-01 -9.5805263519287109e-01</leafValues></_>
        <_>
          <internalNodes>
            0 -1 146 -8.9153330773115158e-03</internalNodes>
          <leafValues>
            7.8734660148620605e-01 -1.7527803778648376e-01</leafValues></_>
        <_>
          <internalNodes>
            0 -1 171 2.4928166531026363e-03</internalNodes>
          <leafValues>
            3.6894738674163818e-01 -4.3598428368568420e-01</leafValues></_>
        <_>
          <internalNodes>
            0 -1 178 -6.0475122882053256e-04</internalNodes>
          <leafValues>
            3.9040279388427734e-01 -3.5715964436531067e-01</leafValues></_>
        <_>
          <internalNodes>
            0 -1 224 3.8742549804737791e-05</internalNodes>
          <leafValues>
            -3.1143054366111755e-01 3.7824207544326782e-01</leafValues></_></weakClassifiers></_>
    <!-- stage 19 -->
    <_>
      <maxWeakCount>10</maxWeakCount>
      <stageThreshold>-4.7735381126403809e-01</stageThreshold>
      <weakClassifiers>
        <_>
          <internalNodes>
            0 -1 2 3.0543785542249680e-02</internalNodes>
          <leafValues>
            -3.4313726425170898e-01 4.6461537480354309e-01</leafValues></_>
        <_>
          <internalNodes>
            0 -1 5 -6.7640775814652443e-03</internalNodes>
          <leafValues>
            -9.4385558366775513e-01 1.7383445799350739e-01</leafValues></_>
        <_>
          <internalNodes>
            0 -1 145 -5.1522195339202881e-02</internalNodes>
          <leafValues>
            4.5836794376373291e-01 -3.1921821832656860e-01</leafValues></_>
        <_>
          <internalNodes>
            0 -1 182 2.2854420822113752e-03</internalNodes>
          <leafValues>
            1.2888859212398529e-01 -9.5554542541503906e-01</leafValues></_>
        <_>
          <internalNodes>
            0 -1 169 -3.9076153188943863e-03</internalNodes>
          <leafValues>
            -8.8223379850387573e-01 1.0516178607940674e-01</leafValues></_>
        <_>
          <internalNodes>
            0 -1 208 -1.0113460011780262e-02</internalNodes>
          <leafValues>
            6.2079977989196777e-01 -2.0689402520656586e-01</leafValues></_>
        <_>
          <internalNodes>
            0 -1 194 6.0618069255724549e-05</internalNodes>
          <leafValues>
            -3.1238627433776855e-01 4.5610061287879944e-01</leafValues></_>
        <_>
          <internalNodes>
            0 -1 67 3.2532371114939451e-03</internalNodes>
          <leafValues>
            -8.3221477270126343e-01 1.5709012746810913e-01</leafValues></_>
        <_>
          <internalNodes>
            0 -1 66 9.4783143140375614e-04</internalNodes>
          <leafValues>
            5.3494369983673096e-01 -2.5985357165336609e-01</leafValues></_>
        <_>
          <internalNodes>
            0 -1 85 -4.9729030579328537e-03</internalNodes>
          <leafValues>
            6.8341070413589478e-01 -1.7481864988803864e-01</leafValues></_></weakClassifiers></_>
    <!-- stage 20 -->
    <_>
      <maxWeakCount>11</maxWeakCount>
      <stageThreshold>-6.0290002822875977e-01</stageThreshold>
      <weakClassifiers>
        <_>
          <internalNodes>
            0 -1 29 5.3576275706291199e-02</internalNodes>
          <leafValues>
            -4.8837208747863770e-01 4.6218487620353699e-01</leafValues></_>
        <_>
          <internalNodes>
            0 -1 10 3.7457004655152559e-03</internalNodes>
          <leafValues>
            -2.9230594635009766e-01 4.2944362759590149e-01</leafValues></_>
        <_>
          <internalNodes>
            0 -1 40 5.2659483626484871e-03</internalNodes>
          <leafValues>
            1.5070778131484985e-01 -8.4867572784423828e-01</leafValues></_>
        <_>
          <internalNodes>
            0 -1 131 1.1259649880230427e-02</internalNodes>
          <leafValues>
            -1.9063259661197662e-01 6.9052654504776001e-01</leafValues></_>
        <_>
          <internalNodes>
            0 -1 99 9.3370571266859770e-04</internalNodes>
          <leafValues>
            5.3211462497711182e-01 -2.7770301699638367e-01</leafValues></_>
        <_>
          <internalNodes>
            0 -1 221 -4.4881212525069714e-03</internalNodes>
          <leafValues>
            -8.0723226070404053e-01 1.8950317800045013e-01</leafValues></_>
        <_>
          <internalNodes>
            0 -1 173 5.6996895000338554e-03</internalNodes>
          <leafValues>
            1.3583664596080780e-01 -5.6013357639312744e-01</leafValues></_>
        <_>
          <internalNodes>
            0 -1 144 -1.7271679826080799e-03</internalNodes>
          <leafValues>
            -8.5342383384704590e-01 1.0671868920326233e-01</leafValues></_>
        <_>
          <internalNodes>
            0 -1 166 5.8349214668851346e-05</internalNodes>
          <leafValues>
            -3.1358456611633301e-01 3.5971349477767944e-01</leafValues></_>
        <_>
          <internalNodes>
            0 -1 206 6.4271420240402222e-02</internalNodes>
          <leafValues>
            1.7333191633224487e-01 -8.7324464321136475e-01</leafValues></_>
        <_>
          <internalNodes>
            0 -1 210 4.4245538447285071e-05</internalNodes>
          <leafValues>
            -3.9694961905479431e-01 2.9961958527565002e-01</leafValues></_></weakClassifiers></_>
    <!-- stage 21 -->
    <_>
      <maxWeakCount>12</maxWeakCount>
      <stageThreshold>-9.8134887218475342e-01</stageThreshold>
      <weakClassifiers>
        <_>
          <internalNodes>
            0 -1 86 1.6481343656778336e-02</internalNodes>
          <leafValues>
            -3.6073058843612671e-01 5.1612901687622070e-01</leafValues></_>
        <_>
          <internalNodes>
            0 -1 184 2.5379606522619724e-03</internalNodes>
          <leafValues>
            2.6752495765686035e-01 -4.8075750470161438e-01</leafValues></_>
        <_>
          <internalNodes>
            0 -1 191 -1.6692680947016925e-04</internalNodes>
          <leafValues>
            5.6767094135284424e-01 -2.0380419492721558e-01</leafValues></_>
        <_>
          <internalNodes>
            0 -1 190 1.2943912297487259e-02</internalNodes>
          <leafValues>
            1.3167859613895416e-01 -7.8013324737548828e-01</leafValues></_>
        <_>
          <internalNodes>
            0 -1 135 -2.3948367015691474e-05</internalNodes>
          <leafValues>
            5.4577398300170898e-01 -2.2392812371253967e-01</leafValues></_>
        <_>
          <internalNodes>
            0 -1 161 3.0675749294459820e-03</internalNodes>
          <leafValues>
            3.7476202845573425e-01 -3.4809395670890808e-01</leafValues></_>
        <_>
          <internalNodes>
            0 -1 28 7.8790448606014252e-03</internalNodes>
          <leafValues>
            1.6398781538009644e-01 -8.1556606292724609e-01</leafValues></_>
        <_>
          <internalNodes>
            0 -1 88 -2.8513982892036438e-02</internalNodes>
          <leafValues>
            7.3238533735275269e-01 -2.1526491641998291e-01</leafValues></_>
        <_>
          <internalNodes>
            0 -1 216 8.4834331646561623e-03</internalNodes>
          <leafValues>
            2.4757057428359985e-01 -5.2239495515823364e-01</leafValues></_>
        <_>
          <internalNodes>
            0 -1 159 8.4409341216087341e-03</internalNodes>
          <leafValues>
            1.8347255885601044e-01 -5.2272713184356689e-01</leafValues></_>
        <_>
          <internalNodes>
            0 -1 78 -5.6921155191957951e-05</internalNodes>
          <leafValues>
            3.2101973891258240e-01 -3.7071436643600464e-01</leafValues></_>
        <_>
          <internalNodes>
            0 -1 53 3.9473723154515028e-04</internalNodes>
          <leafValues>
            3.0089420080184937e-01 -4.3308338522911072e-01</leafValues></_></weakClassifiers></_>
    <!-- stage 22 -->
    <_>
      <maxWeakCount>11</maxWeakCount>
      <stageThreshold>-6.6401493549346924e-01</stageThreshold>
      <weakClassifiers>
        <_>
          <internalNodes>
            0 -1 43 2.9079843312501907e-02</internalNodes>
          <leafValues>
            -2.7038627862930298e-01 4.8648649454116821e-01</leafValues></_>
        <_>
          <internalNodes>
            0 -1 179 -1.7174843698740005e-02</internalNodes>
          <leafValues>
            6.4075869321823120e-01 -1.9778263568878174e-01</leafValues></_>
        <_>
          <internalNodes>
            0 -1 222 -1.3080665376037359e-03</internalNodes>
          <leafValues>
            -6.6412693262100220e-01 2.0308732986450195e-01</leafValues></_>
        <_>
          <internalNodes>
            0 -1 93 -2.7912752702832222e-03</internalNodes>
          <leafValues>
            -9.6539181470870972e-01 9.6336111426353455e-02</leafValues></_>
        <_>
          <internalNodes>
            0 -1 189 4.2633368138922378e-05</internalNodes>
          <leafValues>
            -4.0833833813667297e-01 2.7994194626808167e-01</leafValues></_>
        <_>
          <internalNodes>
            0 -1 195 -2.1024886518716812e-03</internalNodes>
          <leafValues>
            -6.9414204359054565e-01 2.0868574082851410e-01</leafValues></_>
        <_>
          <internalNodes>
            0 -1 209 8.0916075967252254e-04</internalNodes>
          <leafValues>
            -2.6570793986320496e-01 5.0381398200988770e-01</leafValues></_>
        <_>
          <internalNodes>
            0 -1 45 -1.9577655475586653e-03</internalNodes>
          <leafValues>
            -9.2506003379821777e-01 1.0824126750230789e-01</leafValues></_>
        <_>
          <internalNodes>
            0 -1 140 -1.5033248066902161e-01</internalNodes>
          <leafValues>
            6.5672844648361206e-01 -2.2630867362022400e-01</leafValues></_>
        <_>
          <internalNodes>
            0 -1 134 5.4219970479607582e-04</internalNodes>
          <leafValues>
            4.7135552763938904e-01 -3.0311709642410278e-01</leafValues></_>
        <_>
          <internalNodes>
            0 -1 57 1.3303710147738457e-02</internalNodes>
          <leafValues>
            -1.6864961385726929e-01 7.1370106935501099e-01</leafValues></_></weakClassifiers></_>
    <!-- stage 23 -->
    <_>
      <maxWeakCount>14</maxWeakCount>
      <stageThreshold>-7.4316811561584473e-01</stageThreshold>
      <weakClassifiers>
        <_>
          <internalNodes>
            0 -1 89 6.1517083644866943e-01</internalNodes>
          <leafValues>
            -3.2663315534591675e-01 4.4242423772811890e-01</leafValues></_>
        <_>
          <internalNodes>
            0 -1 163 -1.3323359191417694e-02</internalNodes>
          <leafValues>
            3.1777077913284302e-01 -4.2768824100494385e-01</leafValues></_>
        <_>
          <internalNodes>
            0 -1 114 -4.3493855628184974e-05</internalNodes>
          <leafValues>
            4.5804074406623840e-01 -2.6885527372360229e-01</leafValues></_>
        <_>
          <internalNodes>
            0 -1 15 -2.6700906455516815e-03</internalNodes>
          <leafValues>
            -7.3998939990997314e-01 1.5660429000854492e-01</leafValues></_>
        <_>
          <internalNodes>
            0 -1 154 -7.0818176027387381e-05</internalNodes>
          <leafValues>
            4.3771207332611084e-01 -2.4761766195297241e-01</leafValues></_>
        <_>
          <internalNodes>
            0 -1 170 -1.4017224311828613e-03</internalNodes>
          <leafValues>
            -7.1917539834976196e-01 1.5957710146903992e-01</leafValues></_>
        <_>
          <internalNodes>
            0 -1 38 1.5269605442881584e-02</internalNodes>
          <leafValues>
            1.0619955509901047e-01 -7.5785595178604126e-01</leafValues></_>
        <_>
          <internalNodes>
            0 -1 94 2.5814403779804707e-03</internalNodes>
          <leafValues>
            -4.4307881593704224e-01 2.5027206540107727e-01</leafValues></_>
        <_>
          <internalNodes>
            0 -1 219 1.8695795006351545e-05</internalNodes>
          <leafValues>
            -3.0070286989212036e-01 3.6481308937072754e-01</leafValues></_>
        <_>
          <internalNodes>
            0 -1 186 -2.2423460613936186e-03</internalNodes>
          <leafValues>
            -9.2800915241241455e-01 1.5049123764038086e-01</leafValues></_>
        <_>
          <internalNodes>
            0 -1 124 -6.7139953374862671e-02</internalNodes>
          <leafValues>
            5.8695375919342041e-01 -2.3839822411537170e-01</leafValues></_>
        <_>
          <internalNodes>
            0 -1 181 5.8386118325870484e-05</internalNodes>
          <leafValues>
            -3.6418083310127258e-01 3.3920174837112427e-01</leafValues></_>
        <_>
          <internalNodes>
            0 -1 50 -1.3449506834149361e-02</internalNodes>
          <leafValues>
            9.8267757892608643e-01 -1.0102683305740356e-01</leafValues></_>
        <_>
          <internalNodes>
            0 -1 18 6.4472421072423458e-03</internalNodes>
          <leafValues>
            1.5058881044387817e-01 -9.4360882043838501e-01</leafValues></_></weakClassifiers></_>
    <!-- stage 24 -->
    <_>
      <maxWeakCount>8</maxWeakCount>
      <stageThreshold>-5.3819370269775391e-01</stageThreshold>
      <weakClassifiers>
        <_>
          <internalNodes>
            0 -1 87 1.5178601257503033e-02</internalNodes>
          <leafValues>
            -3.6898395419120789e-01 4.3859648704528809e-01</leafValues></_>
        <_>
          <internalNodes>
            0 -1 34 4.7848670510575175e-04</internalNodes>
          <leafValues>
            2.1003703773021698e-01 -6.4461022615432739e-01</leafValues></_>
        <_>
          <internalNodes>
            0 -1 176 2.3132427595555782e-03</internalNodes>
          <leafValues>
            1.9546031951904297e-01 -8.1017971038818359e-01</leafValues></_>
        <_>
          <internalNodes>
            0 -1 212 1.5293627511709929e-03</internalNodes>
          <leafValues>
            -4.8404669761657715e-01 2.4111929535865784e-01</leafValues></_>
        <_>
          <internalNodes>
            0 -1 92 -4.4153141789138317e-03</internalNodes>
          <leafValues>
            5.0250589847564697e-01 -3.0108782649040222e-01</leafValues></_>
        <_>
          <internalNodes>
            0 -1 52 1.3547956477850676e-03</internalNodes>
          <leafValues>
            2.9683604836463928e-01 -4.5395824313163757e-01</leafValues></_>
        <_>
          <internalNodes>
            0 -1 33 3.1486022635363042e-04</internalNodes>
          <leafValues>
            -5.4967826604843140e-01 2.7964016795158386e-01</leafValues></_>
        <_>
          <internalNodes>
            0 -1 71 1.2667365372180939e-03</internalNodes>
          <leafValues>
            8.4846585988998413e-01 -1.6798922419548035e-01</leafValues></_></weakClassifiers></_>
    <!-- stage 25 -->
    <_>
      <maxWeakCount>12</maxWeakCount>
      <stageThreshold>-6.3930517435073853e-01</stageThreshold>
      <weakClassifiers>
        <_>
          <internalNodes>
            0 -1 187 8.3573199808597565e-02</internalNodes>
          <leafValues>
            -5.7692307233810425e-01 3.3176469802856445e-01</leafValues></_>
        <_>
          <internalNodes>
            0 -1 132 2.2893588989973068e-02</internalNodes>
          <leafValues>
            2.3714278638362885e-01 -5.8637160062789917e-01</leafValues></_>
        <_>
          <internalNodes>
            0 -1 31 9.5980073092505336e-04</internalNodes>
          <leafValues>
            2.3867446184158325e-01 -5.8287537097930908e-01</leafValues></_>
        <_>
          <internalNodes>
            0 -1 97 -2.8526387177407742e-03</internalNodes>
          <leafValues>
            5.3324723243713379e-01 -2.3006546497344971e-01</leafValues></_>
        <_>
          <internalNodes>
            0 -1 74 7.4152550951112062e-05</internalNodes>
          <leafValues>
            -3.3310347795486450e-01 4.3470624089241028e-01</leafValues></_>
        <_>
          <internalNodes>
            0 -1 183 3.7841238081455231e-03</internalNodes>
          <leafValues>
            5.4694801568984985e-01 -2.3720887303352356e-01</leafValues></_>
        <_>
          <internalNodes>
            0 -1 54 1.3369295746088028e-02</internalNodes>
          <leafValues>
            -2.0558874309062958e-01 6.3136261701583862e-01</leafValues></_>
        <_>
          <internalNodes>
            0 -1 70 1.6900603659451008e-03</internalNodes>
          <leafValues>
            6.4762002229690552e-01 -2.4045370519161224e-01</leafValues></_>
        <_>
          <internalNodes>
            0 -1 160 -3.1301337294280529e-03</internalNodes>
          <leafValues>
            -9.2292952537536621e-01 2.0277366042137146e-01</leafValues></_>
        <_>
          <internalNodes>
            0 -1 137 1.7143180593848228e-03</internalNodes>
          <leafValues>
            1.5231049060821533e-01 -6.9472396373748779e-01</leafValues></_>
        <_>
          <internalNodes>
            0 -1 218 2.7765231207013130e-03</internalNodes>
          <leafValues>
            1.5135930478572845e-01 -7.5231420993804932e-01</leafValues></_>
        <_>
          <internalNodes>
            0 -1 80 -2.7601423425949179e-05</internalNodes>
          <leafValues>
            2.5748217105865479e-01 -4.1522040963172913e-01</leafValues></_></weakClassifiers></_></stages>
  <features>
    <_>
      <rects>
        <_>
          0 0 2 6 -1.</_>
        <_>
          0 3 2 3 2.</_></rects>
      <tilted>0</tilted></_>
    <_>
      <rects>
        <_>
          0 0 3 10 -1.</_>
        <_>
          0 5 3 5 2.</_></rects>
      <tilted>0</tilted></_>
    <_>
      <rects>
        <_>
          0 0 6 22 -1.</_>
        <_>
          0 0 3 11 2.</_>
        <_>
          3 11 3 11 2.</_></rects>
      <tilted>0</tilted></_>
    <_>
      <rects>
        <_>
          0 0 12 2 -1.</_>
        <_>
          6 0 6 2 2.</_></rects>
      <tilted>0</tilted></_>
    <_>
      <rects>
        <_>
          0 0 14 4 -1.</_>
        <_>
          0 0 7 2 2.</_>
        <_>
          7 2 7 2 2.</_></rects>
      <tilted>0</tilted></_>
    <_>
      <rects>
        <_>
          0 1 1 16 -1.</_>
        <_>
          0 9 1 8 2.</_></rects>
      <tilted>0</tilted></_>
    <_>
      <rects>
        <_>
          0 1 2 10 -1.</_>
        <_>
          0 6 2 5 2.</_></rects>
      <tilted>0</tilted></_>
    <_>
      <rects>
        <_>
          0 1 6 5 -1.</_>
        <_>
          2 1 2 5 3.</_></rects>
      <tilted>0</tilted></_>
    <_>
      <rects>
        <_>
          0 1 4 22 -1.</_>
        <_>
          0 1 2 11 2.</_>
        <_>
          2 12 2 11 2.</_></rects>
      <tilted>0</tilted></_>
    <_>
      <rects>
        <_>
          0 1 16 2 -1.</_>
        <_>
          8 1 8 2 2.</_></rects>
      <tilted>0</tilted></_>
    <_>
      <rects>
        <_>
          0 2 2 22 -1.</_>
        <_>
          0 2 1 11 2.</_>
        <_>
          1 13 1 11 2.</_></rects>
      <tilted>0</tilted></_>
    <_>
      <rects>
        <_>
          0 2 6 5 -1.</_>
        <_>
          2 2 2 5 3.</_></rects>
      <tilted>0</tilted></_>
    <_>
      <rects>
        <_>
          0 2 5 4 -1.</_>
        <_>
          0 4 5 2 2.</_></rects>
      <tilted>0</tilted></_>
    <_>
      <rects>
        <_>
          0 2 15 21 -1.</_>
        <_>
          5 2 5 21 3.</_></rects>
      <tilted>0</tilted></_>
    <_>
      <rects>
        <_>
          0 3 12 20 -1.</_>
        <_>
          0 3 6 10 2.</_>
        <_>
          6 13 6 10 2.</_></rects>
      <tilted>0</tilted></_>
    <_>
      <rects>
        <_>
          0 5 1 9 -1.</_>
        <_>
          0 8 1 3 3.</_></rects>
      <tilted>0</tilted></_>
    <_>
      <rects>
        <_>
          0 5 12 12 -1.</_>
        <_>
          0 5 6 6 2.</_>
        <_>
          6 11 6 6 2.</_></rects>
      <tilted>0</tilted></_>
    <_>
      <rects>
        <_>
          0 5 18 14 -1.</_>
        <_>
          6 5 6 14 3.</_></rects>
      <tilted>0</tilted></_>
    <_>
      <rects>
        <_>
          0 5 24 2 -1.</_>
        <_>
          0 5 12 1 2.</_>
        <_>
          12 6 12 1 2.</_></rects>
      <tilted>0</tilted></_>
    <_>
      <rects>
        <_>
          0 5 24 10 -1.</_>
        <_>
          12 5 12 10 2.</_></rects>
      <tilted>0</tilted></_>
    <_>
      <rects>
        <_>
          0 6 1 8 -1.</_>
        <_>
          0 10 1 4 2.</_></rects>
      <tilted>0</tilted></_>
    <_>
      <rects>
        <_>
          0 6 1 10 -1.</_>
        <_>
          0 11 1 5 2.</_></rects>
      <tilted>0</tilted></_>
    <_>
      <rects>
        <_>
          0 6 15 16 -1.</_>
        <_>
          5 6 5 16 3.</_></rects>
      <tilted>0</tilted></_>
    <_>
      <rects>
        <_>
          0 6 15 18 -1.</_>
        <_>
          0 15 15 9 2.</_></rects>
      <tilted>0</tilted></_>
    <_>
      <rects>
        <_>
          0 7 4 3 -1.</_>
        <_>
          2 7 2 3 2.</_></rects>
      <tilted>0</tilted></_>
    <_>
      <rects>
        <_>
          0 7 6 17 -1.</_>
        <_>
          3 7 3 17 2.</_></rects>
      <tilted>0</tilted></_>
    <_>
      <rects>
        <_>
          0 7 15 15 -1.</_>
        <_>
          5 7 5 15 3.</_></rects>
      <tilted>0</tilted></_>
    <_>
      <rects>
        <_>
          0 7 18 9 -1.</_>
        <_>
          0 10 18 3 3.</_></rects>
      <tilted>0</tilted></_>
    <_>
      <rects>
        <_>
          0 9 6 14 -1.</_>
        <_>
          2 9 2 14 3.</_></rects>
      <tilted>0</tilted></_>
    <_>
      <rects>
        <_>
          0 9 12 8 -1.</_>
        <_>
          6 9 6 8 2.</_></rects>
      <tilted>0</tilted></_>
    <_>
      <rects>
        <_>
          0 11 8 10 -1.</_>
        <_>
          0 11 4 5 2.</_>
        <_>
          4 16 4 5 2.</_></rects>
      <tilted>0</tilted></_>
    <_>
      <rects>
        <_>
          0 12 1 4 -1.</_>
        <_>
          0 14 1 2 2.</_></rects>
      <tilted>0</tilted></_>
    <_>
      <rects>
        <_>
          0 12 6 12 -1.</_>
        <_>
          0 12 3 6 2.</_>
        <_>
          3 18 3 6 2.</_></rects>
      <tilted>0</tilted></_>
    <_>
      <rects>
        <_>
          0 12 17 6 -1.</_>
        <_>
          0 14 17 2 3.</_></rects>
      <tilted>0</tilted></_>
    <_>
      <rects>
        <_>
          0 13 1 2 -1.</_>
        <_>
          0 14 1 1 2.</_></rects>
      <tilted>0</tilted></_>
    <_>
      <rects>
        <_>
          0 13 4 10 -1.</_>
        <_>
          2 13 2 10 2.</_></rects>
      <tilted>0</tilted></_>
    <_>
      <rects>
        <_>
          0 14 12 2 -1.</_>
        <_>
          4 14 4 2 3.</_></rects>
      <tilted>0</tilted></_>
    <_>
      <rects>
        <_>
          0 15 9 2 -1.</_>
        <_>
          0 16 9 1 2.</_></rects>
      <tilted>0</tilted></_>
    <_>
      <rects>
        <_>
          0 18 22 6 -1.</_>
        <_>
          0 20 22 2 3.</_></rects>
      <tilted>0</tilted></_>
    <_>
      <rects>
        <_>
          1 0 4 6 -1.</_>
        <_>
          1 2 4 2 3.</_></rects>
      <tilted>0</tilted></_>
    <_>
      <rects>
        <_>
          1 0 10 6 -1.</_>
        <_>
          1 0 5 3 2.</_>
        <_>
          6 3 5 3 2.</_></rects>
      <tilted>0</tilted></_>
    <_>
      <rects>
        <_>
          1 0 10 22 -1.</_>
        <_>
          1 0 5 11 2.</_>
        <_>
          6 11 5 11 2.</_></rects>
      <tilted>0</tilted></_>
    <_>
      <rects>
        <_>
          1 0 7 10 -1.</_>
        <_>
          1 5 7 5 2.</_></rects>
      <tilted>0</tilted></_>
    <_>
      <rects>
        <_>
          1 1 6 18 -1.</_>
        <_>
          1 1 3 9 2.</_>
        <_>
          4 10 3 9 2.</_></rects>
      <tilted>0</tilted></_>
    <_>
      <rects>
        <_>
          1 2 1 12 -1.</_>
        <_>
          1 6 1 4 3.</_></rects>
      <tilted>0</tilted></_>
    <_>
      <rects>
        <_>
          1 3 16 2 -1.</_>
        <_>
          1 3 8 1 2.</_>
        <_>
          9 4 8 1 2.</_></rects>
      <tilted>0</tilted></_>
    <_>
      <rects>
        <_>
          1 4 15 14 -1.</_>
        <_>
          6 4 5 14 3.</_></rects>
      <tilted>0</tilted></_>
    <_>
      <rects>
        <_>
          1 5 8 16 -1.</_>
        <_>
          1 5 4 8 2.</_>
        <_>
          5 13 4 8 2.</_></rects>
      <tilted>0</tilted></_>
    <_>
      <rects>
        <_>
          1 5 18 9 -1.</_>
        <_>
          1 8 18 3 3.</_></rects>
      <tilted>0</tilted></_>
    <_>
      <rects>
        <_>
          1 6 2 10 -1.</_>
        <_>
          1 11 2 5 2.</_></rects>
      <tilted>0</tilted></_>
    <_>
      <rects>
        <_>
          1 6 6 14 -1.</_>
        <_>
          1 6 3 7 2.</_>
        <_>
          4 13 3 7 2.</_></rects>
      <tilted>0</tilted></_>
    <_>
      <rects>
        <_>
          1 6 12 13 -1.</_>
        <_>
          5 6 4 13 3.</_></rects>
      <tilted>0</tilted></_>
    <_>
      <rects>
        <_>
          1 8 1 8 -1.</_>
        <_>
          1 12 1 4 2.</_></rects>
      <tilted>0</tilted></_>
    <_>
      <rects>
        <_>
          1 8 2 4 -1.</_>
        <_>
          1 10 2 2 2.</_></rects>
      <tilted>0</tilted></_>
    <_>
      <rects>
        <_>
          1 10 4 10 -1.</_>
        <_>
          1 10 2 5 2.</_>
        <_>
          3 15 2 5 2.</_></rects>
      <tilted>0</tilted></_>
    <_>
      <rects>
        <_>
          1 12 6 1 -1.</_>
        <_>
          4 12 3 1 2.</_></rects>
      <tilted>0</tilted></_>
    <_>
      <rects>
        <_>
          1 12 6 12 -1.</_>
        <_>
          1 12 3 6 2.</_>
        <_>
          4 18 3 6 2.</_></rects>
      <tilted>0</tilted></_>
    <_>
      <rects>
        <_>
          1 13 6 6 -1.</_>
        <_>
          1 13 3 3 2.</_>
        <_>
          4 16 3 3 2.</_></rects>
      <tilted>0</tilted></_>
    <_>
      <rects>
        <_>
          2 0 6 3 -1.</_>
        <_>
          5 0 3 3 2.</_></rects>
      <tilted>0</tilted></_>
    <_>
      <rects>
        <_>
          2 0 12 24 -1.</_>
        <_>
          6 0 4 24 3.</_></rects>
      <tilted>0</tilted></_>
    <_>
      <rects>
        <_>
          2 0 14 1 -1.</_>
        <_>
          9 0 7 1 2.</_></rects>
      <tilted>0</tilted></_>
    <_>
      <rects>
        <_>
          2 4 22 2 -1.</_>
        <_>
          2 4 11 1 2.</_>
        <_>
          13 5 11 1 2.</_></rects>
      <tilted>0</tilted></_>
    <_>
      <rects>
        <_>
          2 5 5 4 -1.</_>
        <_>
          2 7 5 2 2.</_></rects>
      <tilted>0</tilted></_>
    <_>
      <rects>
        <_>
          2 6 6 18 -1.</_>
        <_>
          2 6 3 9 2.</_>
        <_>
          5 15 3 9 2.</_></rects>
      <tilted>0</tilted></_>
    <_>
      <rects>
        <_>
          2 7 12 11 -1.</_>
        <_>
          6 7 4 11 3.</_></rects>
      <tilted>0</tilted></_>
    <_>
      <rects>
        <_>
          2 7 12 13 -1.</_>
        <_>
          6 7 4 13 3.</_></rects>
      <tilted>0</tilted></_>
    <_>
      <rects>
        <_>
          2 8 4 10 -1.</_>
        <_>
          2 8 2 5 2.</_>
        <_>
          4 13 2 5 2.</_></rects>
      <tilted>0</tilted></_>
    <_>
      <rects>
        <_>
          2 9 4 14 -1.</_>
        <_>
          4 9 2 14 2.</_></rects>
      <tilted>0</tilted></_>
    <_>
      <rects>
        <_>
          2 12 2 8 -1.</_>
        <_>
          2 12 1 4 2.</_>
        <_>
          3 16 1 4 2.</_></rects>
      <tilted>0</tilted></_>
    <_>
      <rects>
        <_>
          2 14 2 2 -1.</_>
        <_>
          2 14 1 1 2.</_>
        <_>
          3 15 1 1 2.</_></rects>
      <tilted>0</tilted></_>
    <_>
      <rects>
        <_>
          2 14 4 4 -1.</_>
        <_>
          4 14 2 4 2.</_></rects>
      <tilted>0</tilted></_>
    <_>
      <rects>
        <_>
          2 14 6 4 -1.</_>
        <_>
          5 14 3 4 2.</_></rects>
      <tilted>0</tilted></_>
    <_>
      <rects>
        <_>
          2 14 8 6 -1.</_>
        <_>
          2 16 8 2 3.</_></rects>
      <tilted>0</tilted></_>
    <_>
      <rects>
        <_>
          2 16 22 6 -1.</_>
        <_>
          2 18 22 2 3.</_></rects>
      <tilted>0</tilted></_>
    <_>
      <rects>
        <_>
          2 17 2 4 -1.</_>
        <_>
          2 17 1 2 2.</_>
        <_>
          3 19 1 2 2.</_></rects>
      <tilted>0</tilted></_>
    <_>
      <rects>
        <_>
          3 1 4 23 -1.</_>
        <_>
          5 1 2 23 2.</_></rects>
      <tilted>0</tilted></_>
    <_>
      <rects>
        <_>
          3 1 10 1 -1.</_>
        <_>
          8 1 5 1 2.</_></rects>
      <tilted>0</tilted></_>
    <_>
      <rects>
        <_>
          3 1 12 15 -1.</_>
        <_>
          3 6 12 5 3.</_></rects>
      <tilted>0</tilted></_>
    <_>
      <rects>
        <_>
          3 2 4 2 -1.</_>
        <_>
          5 2 2 2 2.</_></rects>
      <tilted>0</tilted></_>
    <_>
      <rects>
        <_>
          3 3 17 16 -1.</_>
        <_>
          3 11 17 8 2.</_></rects>
      <tilted>0</tilted></_>
    <_>
      <rects>
        <_>
          3 5 10 1 -1.</_>
        <_>
          8 5 5 1 2.</_></rects>
      <tilted>0</tilted></_>
    <_>
      <rects>
        <_>
          3 7 4 16 -1.</_>
        <_>
          3 7 2 8 2.</_>
        <_>
          5 15 2 8 2.</_></rects>
      <tilted>0</tilted></_>
    <_>
      <rects>
        <_>
          3 9 6 12 -1.</_>
        <_>
          3 9 3 6 2.</_>
        <_>
          6 15 3 6 2.</_></rects>
      <tilted>0</tilted></_>
    <_>
      <rects>
        <_>
          3 9 9 11 -1.</_>
        <_>
          6 9 3 11 3.</_></rects>
      <tilted>0</tilted></_>
    <_>
      <rects>
        <_>
          3 9 8 14 -1.</_>
        <_>
          3 9 4 7 2.</_>
        <_>
          7 16 4 7 2.</_></rects>
      <tilted>0</tilted></_>
    <_>
      <rects>
        <_>
          3 12 6 3 -1.</_>
        <_>
          5 12 2 3 3.</_></rects>
      <tilted>0</tilted></_>
    <_>
      <rects>
        <_>
          4 0 9 18 -1.</_>
        <_>
          7 0 3 18 3.</_></rects>
      <tilted>0</tilted></_>
    <_>
      <rects>
        <_>
          4 0 9 19 -1.</_>
        <_>
          7 0 3 19 3.</_></rects>
      <tilted>0</tilted></_>
    <_>
      <rects>
        <_>
          4 0 12 24 -1.</_>
        <_>
          8 0 4 24 3.</_></rects>
      <tilted>0</tilted></_>
    <_>
      <rects>
        <_>
          4 0 17 24 -1.</_>
        <_>
          4 12 17 12 2.</_></rects>
      <tilted>0</tilted></_>
    <_>
      <rects>
        <_>
          4 3 6 3 -1.</_>
        <_>
          6 3 2 3 3.</_></rects>
      <tilted>0</tilted></_>
    <_>
      <rects>
        <_>
          4 3 8 2 -1.</_>
        <_>
          4 3 4 1 2.</_>
        <_>
          8 4 4 1 2.</_></rects>
      <tilted>0</tilted></_>
    <_>
      <rects>
        <_>
          4 4 4 20 -1.</_>
        <_>
          4 4 2 10 2.</_>
        <_>
          6 14 2 10 2.</_></rects>
      <tilted>0</tilted></_>
    <_>
      <rects>
        <_>
          4 4 6 4 -1.</_>
        <_>
          4 6 6 2 2.</_></rects>
      <tilted>0</tilted></_>
    <_>
      <rects>
        <_>
          4 5 2 18 -1.</_>
        <_>
          5 5 1 18 2.</_></rects>
      <tilted>0</tilted></_>
    <_>
      <rects>
        <_>
          4 8 9 10 -1.</_>
        <_>
          7 8 3 10 3.</_></rects>
      <tilted>0</tilted></_>
    <_>
      <rects>
        <_>
          4 8 16 8 -1.</_>
        <_>
          4 12 16 4 2.</_></rects>
      <tilted>0</tilted></_>
    <_>
      <rects>
        <_>
          4 10 2 12 -1.</_>
        <_>
          4 10 1 6 2.</_>
        <_>
          5 16 1 6 2.</_></rects>
      <tilted>0</tilted></_>
    <_>
      <rects>
        <_>
          4 10 2 4 -1.</_>
        <_>
          4 12 2 2 2.</_></rects>
      <tilted>0</tilted></_>
    <_>
      <rects>
        <_>
          4 14 4 2 -1.</_>
        <_>
          6 14 2 2 2.</_></rects>
      <tilted>0</tilted></_>
    <_>
      <rects>
        <_>
          4 17 2 4 -1.</_>
        <_>
          4 19 2 2 2.</_></rects>
      <tilted>0</tilted></_>
    <_>
      <rects>
        <_>
          5 0 1 8 -1.</_>
        <_>
          5 4 1 4 2.</_></rects>
      <tilted>0</tilted></_>
    <_>
      <rects>
        <_>
          5 0 9 1 -1.</_>
        <_>
          8 0 3 1 3.</_></rects>
      <tilted>0</tilted></_>
    <_>
      <rects>
        <_>
          5 0 18 4 -1.</_>
        <_>
          5 0 9 2 2.</_>
        <_>
          14 2 9 2 2.</_></rects>
      <tilted>0</tilted></_>
    <_>
      <rects>
        <_>
          5 0 15 22 -1.</_>
        <_>
          5 11 15 11 2.</_></rects>
      <tilted>0</tilted></_>
    <_>
      <rects>
        <_>
          5 1 2 3 -1.</_>
        <_>
          6 1 1 3 2.</_></rects>
      <tilted>0</tilted></_>
    <_>
      <rects>
        <_>
          5 1 6 6 -1.</_>
        <_>
          5 4 6 3 2.</_></rects>
      <tilted>0</tilted></_>
    <_>
      <rects>
        <_>
          5 2 12 18 -1.</_>
        <_>
          5 11 12 9 2.</_></rects>
      <tilted>0</tilted></_>
    <_>
      <rects>
        <_>
          5 2 12 20 -1.</_>
        <_>
          5 12 12 10 2.</_></rects>
      <tilted>0</tilted></_>
    <_>
      <rects>
        <_>
          5 5 13 12 -1.</_>
        <_>
          5 9 13 4 3.</_></rects>
      <tilted>0</tilted></_>
    <_>
      <rects>
        <_>
          5 5 15 9 -1.</_>
        <_>
          5 8 15 3 3.</_></rects>
      <tilted>0</tilted></_>
    <_>
      <rects>
        <_>
          5 6 6 18 -1.</_>
        <_>
          7 6 2 18 3.</_></rects>
      <tilted>0</tilted></_>
    <_>
      <rects>
        <_>
          5 7 6 9 -1.</_>
        <_>
          7 7 2 9 3.</_></rects>
      <tilted>0</tilted></_>
    <_>
      <rects>
        <_>
          5 9 2 2 -1.</_>
        <_>
          5 9 1 1 2.</_>
        <_>
          6 10 1 1 2.</_></rects>
      <tilted>0</tilted></_>
    <_>
      <rects>
        <_>
          5 19 2 1 -1.</_>
        <_>
          6 19 1 1 2.</_></rects>
      <tilted>0</tilted></_>
    <_>
      <rects>
        <_>
          6 0 2 4 -1.</_>
        <_>
          6 2 2 2 2.</_></rects>
      <tilted>0</tilted></_>
    <_>
      <rects>
        <_>
          6 0 10 1 -1.</_>
        <_>
          11 0 5 1 2.</_></rects>
      <tilted>0</tilted></_>
    <_>
      <rects>
        <_>
          6 0 17 14 -1.</_>
        <_>
          6 7 17 7 2.</_></rects>
      <tilted>0</tilted></_>
    <_>
      <rects>
        <_>
          6 1 1 20 -1.</_>
        <_>
          6 11 1 10 2.</_></rects>
      <tilted>0</tilted></_>
    <_>
      <rects>
        <_>
          6 1 6 6 -1.</_>
        <_>
          6 1 3 3 2.</_>
        <_>
          9 4 3 3 2.</_></rects>
      <tilted>0</tilted></_>
    <_>
      <rects>
        <_>
          6 1 11 22 -1.</_>
        <_>
          6 12 11 11 2.</_></rects>
      <tilted>0</tilted></_>
    <_>
      <rects>
        <_>
          6 3 4 2 -1.</_>
        <_>
          8 3 2 2 2.</_></rects>
      <tilted>0</tilted></_>
    <_>
      <rects>
        <_>
          6 3 6 2 -1.</_>
        <_>
          9 3 3 2 2.</_></rects>
      <tilted>0</tilted></_>
    <_>
      <rects>
        <_>
          6 3 11 18 -1.</_>
        <_>
          6 12 11 9 2.</_></rects>
      <tilted>0</tilted></_>
    <_>
      <rects>
        <_>
          6 4 11 12 -1.</_>
        <_>
          6 8 11 4 3.</_></rects>
      <tilted>0</tilted></_>
    <_>
      <rects>
        <_>
          6 5 6 1 -1.</_>
        <_>
          9 5 3 1 2.</_></rects>
      <tilted>0</tilted></_>
    <_>
      <rects>
        <_>
          6 5 9 12 -1.</_>
        <_>
          9 5 3 12 3.</_></rects>
      <tilted>0</tilted></_>
    <_>
      <rects>
        <_>
          6 5 10 18 -1.</_>
        <_>
          11 5 5 18 2.</_></rects>
      <tilted>0</tilted></_>
    <_>
      <rects>
        <_>
          6 8 6 10 -1.</_>
        <_>
          8 8 2 10 3.</_></rects>
      <tilted>0</tilted></_>
    <_>
      <rects>
        <_>
          6 9 8 6 -1.</_>
        <_>
          6 12 8 3 2.</_></rects>
      <tilted>0</tilted></_>
    <_>
      <rects>
        <_>
          6 9 14 15 -1.</_>
        <_>
          6 14 14 5 3.</_></rects>
      <tilted>0</tilted></_>
    <_>
      <rects>
        <_>
          6 10 6 5 -1.</_>
        <_>
          8 10 2 5 3.</_></rects>
      <tilted>0</tilted></_>
    <_>
      <rects>
        <_>
          6 10 15 14 -1.</_>
        <_>
          11 10 5 14 3.</_></rects>
      <tilted>0</tilted></_>
    <_>
      <rects>
        <_>
          6 10 14 4 -1.</_>
        <_>
          6 12 14 2 2.</_></rects>
      <tilted>0</tilted></_>
    <_>
      <rects>
        <_>
          6 14 2 4 -1.</_>
        <_>
          7 14 1 4 2.</_></rects>
      <tilted>0</tilted></_>
    <_>
      <rects>
        <_>
          6 15 9 2 -1.</_>
        <_>
          6 16 9 1 2.</_></rects>
      <tilted>0</tilted></_>
    <_>
      <rects>
        <_>
          6 17 2 1 -1.</_>
        <_>
          7 17 1 1 2.</_></rects>
      <tilted>0</tilted></_>
    <_>
      <rects>
        <_>
          6 19 9 3 -1.</_>
        <_>
          6 20 9 1 3.</_></rects>
      <tilted>0</tilted></_>
    <_>
      <rects>
        <_>
          7 0 6 4 -1.</_>
        <_>
          7 0 3 2 2.</_>
        <_>
          10 2 3 2 2.</_></rects>
      <tilted>0</tilted></_>
    <_>
      <rects>
        <_>
          7 0 3 6 -1.</_>
        <_>
          7 3 3 3 2.</_></rects>
      <tilted>0</tilted></_>
    <_>
      <rects>
        <_>
          7 0 10 18 -1.</_>
        <_>
          7 6 10 6 3.</_></rects>
      <tilted>0</tilted></_>
    <_>
      <rects>
        <_>
          7 1 8 2 -1.</_>
        <_>
          11 1 4 2 2.</_></rects>
      <tilted>0</tilted></_>
    <_>
      <rects>
        <_>
          7 1 5 20 -1.</_>
        <_>
          7 11 5 10 2.</_></rects>
      <tilted>0</tilted></_>
    <_>
      <rects>
        <_>
          7 1 9 15 -1.</_>
        <_>
          7 6 9 5 3.</_></rects>
      <tilted>0</tilted></_>
    <_>
      <rects>
        <_>
          7 2 8 1 -1.</_>
        <_>
          11 2 4 1 2.</_></rects>
      <tilted>0</tilted></_>
    <_>
      <rects>
        <_>
          7 2 8 12 -1.</_>
        <_>
          7 6 8 4 3.</_></rects>
      <tilted>0</tilted></_>
    <_>
      <rects>
        <_>
          7 5 6 10 -1.</_>
        <_>
          9 5 2 10 3.</_></rects>
      <tilted>0</tilted></_>
    <_>
      <rects>
        <_>
          7 21 8 3 -1.</_>
        <_>
          7 22 8 1 3.</_></rects>
      <tilted>0</tilted></_>
    <_>
      <rects>
        <_>
          8 0 6 6 -1.</_>
        <_>
          10 0 2 6 3.</_></rects>
      <tilted>0</tilted></_>
    <_>
      <rects>
        <_>
          8 0 6 1 -1.</_>
        <_>
          11 0 3 1 2.</_></rects>
      <tilted>0</tilted></_>
    <_>
      <rects>
        <_>
          8 0 6 3 -1.</_>
        <_>
          11 0 3 3 2.</_></rects>
      <tilted>0</tilted></_>
    <_>
      <rects>
        <_>
          8 0 6 18 -1.</_>
        <_>
          8 0 3 9 2.</_>
        <_>
          11 9 3 9 2.</_></rects>
      <tilted>0</tilted></_>
    <_>
      <rects>
        <_>
          8 0 12 14 -1.</_>
        <_>
          12 0 4 14 3.</_></rects>
      <tilted>0</tilted></_>
    <_>
      <rects>
        <_>
          8 0 8 4 -1.</_>
        <_>
          8 2 8 2 2.</_></rects>
      <tilted>0</tilted></_>
    <_>
      <rects>
        <_>
          8 1 2 2 -1.</_>
        <_>
          8 1 1 1 2.</_>
        <_>
          9 2 1 1 2.</_></rects>
      <tilted>0</tilted></_>
    <_>
      <rects>
        <_>
          8 13 2 6 -1.</_>
        <_>
          8 16 2 3 2.</_></rects>
      <tilted>0</tilted></_>
    <_>
      <rects>
        <_>
          9 0 6 3 -1.</_>
        <_>
          12 0 3 3 2.</_></rects>
      <tilted>0</tilted></_>
    <_>
      <rects>
        <_>
          9 0 7 2 -1.</_>
        <_>
          9 1 7 1 2.</_></rects>
      <tilted>0</tilted></_>
    <_>
      <rects>
        <_>
          9 0 8 20 -1.</_>
        <_>
          9 10 8 10 2.</_></rects>
      <tilted>0</tilted></_>
    <_>
      <rects>
        <_>
          9 2 6 16 -1.</_>
        <_>
          9 2 3 8 2.</_>
        <_>
          12 10 3 8 2.</_></rects>
      <tilted>0</tilted></_>
    <_>
      <rects>
        <_>
          9 2 8 2 -1.</_>
        <_>
          13 2 4 2 2.</_></rects>
      <tilted>0</tilted></_>
    <_>
      <rects>
        <_>
          9 2 8 6 -1.</_>
        <_>
          13 2 4 6 2.</_></rects>
      <tilted>0</tilted></_>
    <_>
      <rects>
        <_>
          9 2 15 16 -1.</_>
        <_>
          14 2 5 16 3.</_></rects>
      <tilted>0</tilted></_>
    <_>
      <rects>
        <_>
          9 3 9 20 -1.</_>
        <_>
          12 3 3 20 3.</_></rects>
      <tilted>0</tilted></_>
    <_>
      <rects>
        <_>
          9 4 9 16 -1.</_>
        <_>
          12 4 3 16 3.</_></rects>
      <tilted>0</tilted></_>
    <_>
      <rects>
        <_>
          9 5 9 18 -1.</_>
        <_>
          12 5 3 18 3.</_></rects>
      <tilted>0</tilted></_>
    <_>
      <rects>
        <_>
          9 8 3 1 -1.</_>
        <_>
          10 8 1 1 3.</_></rects>
      <tilted>0</tilted></_>
    <_>
      <rects>
        <_>
          10 0 4 2 -1.</_>
        <_>
          12 0 2 2 2.</_></rects>
      <tilted>0</tilted></_>
    <_>
      <rects>
        <_>
          10 0 3 24 -1.</_>
        <_>
          10 12 3 12 2.</_></rects>
      <tilted>0</tilted></_>
    <_>
      <rects>
        <_>
          10 1 6 4 -1.</_>
        <_>
          13 1 3 4 2.</_></rects>
      <tilted>0</tilted></_>
    <_>
      <rects>
        <_>
          10 2 2 6 -1.</_>
        <_>
          11 2 1 6 2.</_></rects>
      <tilted>0</tilted></_>
    <_>
      <rects>
        <_>
          10 2 8 3 -1.</_>
        <_>
          14 2 4 3 2.</_></rects>
      <tilted>0</tilted></_>
    <_>
      <rects>
        <_>
          10 4 2 9 -1.</_>
        <_>
          11 4 1 9 2.</_></rects>
      <tilted>0</tilted></_>
    <_>
      <rects>
        <_>
          10 14 9 10 -1.</_>
        <_>
          13 14 3 10 3.</_></rects>
      <tilted>0</tilted></_>
    <_>
      <rects>
        <_>
          10 15 4 1 -1.</_>
        <_>
          12 15 2 1 2.</_></rects>
      <tilted>0</tilted></_>
    <_>
      <rects>
        <_>
          10 15 4 3 -1.</_>
        <_>
          12 15 2 3 2.</_></rects>
      <tilted>0</tilted></_>
    <_>
      <rects>
        <_>
          10 16 10 3 -1.</_>
        <_>
          10 17 10 1 3.</_></rects>
      <tilted>0</tilted></_>
    <_>
      <rects>
        <_>
          10 18 11 3 -1.</_>
        <_>
          10 19 11 1 3.</_></rects>
      <tilted>0</tilted></_>
    <_>
      <rects>
        <_>
          11 0 3 12 -1.</_>
        <_>
          12 0 1 12 3.</_></rects>
      <tilted>0</tilted></_>
    <_>
      <rects>
        <_>
          11 7 9 6 -1.</_>
        <_>
          14 7 3 6 3.</_></rects>
      <tilted>0</tilted></_>
    <_>
      <rects>
        <_>
          11 18 6 2 -1.</_>
        <_>
          13 18 2 2 3.</_></rects>
      <tilted>0</tilted></_>
    <_>
      <rects>
        <_>
          11 21 6 2 -1.</_>
        <_>
          13 21 2 2 3.</_></rects>
      <tilted>0</tilted></_>
    <_>
      <rects>
        <_>
          12 0 4 2 -1.</_>
        <_>
          14 0 2 2 2.</_></rects>
      <tilted>0</tilted></_>
    <_>
      <rects>
        <_>
          12 0 8 7 -1.</_>
        <_>
          16 0 4 7 2.</_></rects>
      <tilted>0</tilted></_>
    <_>
      <rects>
        <_>
          12 1 3 6 -1.</_>
        <_>
          12 4 3 3 2.</_></rects>
      <tilted>0</tilted></_>
    <_>
      <rects>
        <_>
          12 20 12 1 -1.</_>
        <_>
          16 20 4 1 3.</_></rects>
      <tilted>0</tilted></_>
    <_>
      <rects>
        <_>
          13 0 2 6 -1.</_>
        <_>
          13 3 2 3 2.</_></rects>
      <tilted>0</tilted></_>
    <_>
      <rects>
        <_>
          13 0 3 22 -1.</_>
        <_>
          13 11 3 11 2.</_></rects>
      <tilted>0</tilted></_>
    <_>
      <rects>
        <_>
          13 1 10 19 -1.</_>
        <_>
          18 1 5 19 2.</_></rects>
      <tilted>0</tilted></_>
    <_>
      <rects>
        <_>
          13 6 2 2 -1.</_>
        <_>
          13 6 1 1 2.</_>
        <_>
          14 7 1 1 2.</_></rects>
      <tilted>0</tilted></_>
    <_>
      <rects>
        <_>
          13 14 9 10 -1.</_>
        <_>
          16 14 3 10 3.</_></rects>
      <tilted>0</tilted></_>
    <_>
      <rects>
        <_>
          14 9 2 2 -1.</_>
        <_>
          15 9 1 2 2.</_></rects>
      <tilted>0</tilted></_>
    <_>
      <rects>
        <_>
          15 4 6 6 -1.</_>
        <_>
          15 4 3 3 2.</_>
        <_>
          18 7 3 3 2.</_></rects>
      <tilted>0</tilted></_>
    <_>
      <rects>
        <_>
          15 8 4 2 -1.</_>
        <_>
          15 8 2 1 2.</_>
        <_>
          17 9 2 1 2.</_></rects>
      <tilted>0</tilted></_>
    <_>
      <rects>
        <_>
          15 9 4 6 -1.</_>
        <_>
          15 9 2 3 2.</_>
        <_>
          17 12 2 3 2.</_></rects>
      <tilted>0</tilted></_>
    <_>
      <rects>
        <_>
          15 18 9 3 -1.</_>
        <_>
          15 19 9 1 3.</_></rects>
      <tilted>0</tilted></_>
    <_>
      <rects>
        <_>
          16 0 4 3 -1.</_>
        <_>
          18 0 2 3 2.</_></rects>
      <tilted>0</tilted></_>
    <_>
      <rects>
        <_>
          16 0 4 20 -1.</_>
        <_>
          18 0 2 20 2.</_></rects>
      <tilted>0</tilted></_>
    <_>
      <rects>
        <_>
          16 2 6 6 -1.</_>
        <_>
          16 2 3 3 2.</_>
        <_>
          19 5 3 3 2.</_></rects>
      <tilted>0</tilted></_>
    <_>
      <rects>
        <_>
          16 7 8 11 -1.</_>
        <_>
          20 7 4 11 2.</_></rects>
      <tilted>0</tilted></_>
    <_>
      <rects>
        <_>
          16 19 6 5 -1.</_>
        <_>
          18 19 2 5 3.</_></rects>
      <tilted>0</tilted></_>
    <_>
      <rects>
        <_>
          16 20 2 2 -1.</_>
        <_>
          16 20 1 1 2.</_>
        <_>
          17 21 1 1 2.</_></rects>
      <tilted>0</tilted></_>
    <_>
      <rects>
        <_>
          17 2 6 10 -1.</_>
        <_>
          17 2 3 5 2.</_>
        <_>
          20 7 3 5 2.</_></rects>
      <tilted>0</tilted></_>
    <_>
      <rects>
        <_>
          17 5 2 1 -1.</_>
        <_>
          18 5 1 1 2.</_></rects>
      <tilted>0</tilted></_>
    <_>
      <rects>
        <_>
          17 16 6 8 -1.</_>
        <_>
          19 16 2 8 3.</_></rects>
      <tilted>0</tilted></_>
    <_>
      <rects>
        <_>
          17 17 3 6 -1.</_>
        <_>
          17 19 3 2 3.</_></rects>
      <tilted>0</tilted></_>
    <_>
      <rects>
        <_>
          18 0 6 17 -1.</_>
        <_>
          21 0 3 17 2.</_></rects>
      <tilted>0</tilted></_>
    <_>
      <rects>
        <_>
          18 1 2 2 -1.</_>
        <_>
          18 1 1 1 2.</_>
        <_>
          19 2 1 1 2.</_></rects>
      <tilted>0</tilted></_>
    <_>
      <rects>
        <_>
          18 5 6 6 -1.</_>
        <_>
          18 5 3 3 2.</_>
        <_>
          21 8 3 3 2.</_></rects>
      <tilted>0</tilted></_>
    <_>
      <rects>
        <_>
          18 8 4 6 -1.</_>
        <_>
          18 8 2 3 2.</_>
        <_>
          20 11 2 3 2.</_></rects>
      <tilted>0</tilted></_>
    <_>
      <rects>
        <_>
          18 11 2 9 -1.</_>
        <_>
          19 11 1 9 2.</_></rects>
      <tilted>0</tilted></_>
    <_>
      <rects>
        <_>
          18 19 6 2 -1.</_>
        <_>
          18 19 3 1 2.</_>
        <_>
          21 20 3 1 2.</_></rects>
      <tilted>0</tilted></_>
    <_>
      <rects>
        <_>
          19 0 2 17 -1.</_>
        <_>
          20 0 1 17 2.</_></rects>
      <tilted>0</tilted></_>
    <_>
      <rects>
        <_>
          19 0 4 18 -1.</_>
        <_>
          21 0 2 18 2.</_></rects>
      <tilted>0</tilted></_>
    <_>
      <rects>
        <_>
          19 1 4 23 -1.</_>
        <_>
          21 1 2 23 2.</_></rects>
      <tilted>0</tilted></_>
    <_>
      <rects>
        <_>
          19 5 2 2 -1.</_>
        <_>
          19 5 1 1 2.</_>
        <_>
          20 6 1 1 2.</_></rects>
      <tilted>0</tilted></_>
    <_>
      <rects>
        <_>
          19 9 4 15 -1.</_>
        <_>
          21 9 2 15 2.</_></rects>
      <tilted>0</tilted></_>
    <_>
      <rects>
        <_>
          20 7 2 1 -1.</_>
        <_>
          21 7 1 1 2.</_></rects>
      <tilted>0</tilted></_>
    <_>
      <rects>
        <_>
          20 11 2 6 -1.</_>
        <_>
          20 13 2 2 3.</_></rects>
      <tilted>0</tilted></_>
    <_>
      <rects>
        <_>
          20 22 2 2 -1.</_>
        <_>
          20 22 1 1 2.</_>
        <_>
          21 23 1 1 2.</_></rects>
      <tilted>0</tilted></_>
    <_>
      <rects>
        <_>
          21 0 2 2 -1.</_>
        <_>
          21 0 1 1 2.</_>
        <_>
          22 1 1 1 2.</_></rects>
      <tilted>0</tilted></_>
    <_>
      <rects>
        <_>
          21 14 2 8 -1.</_>
        <_>
          21 18 2 4 2.</_></rects>
      <tilted>0</tilted></_>
    <_>
      <rects>
        <_>
          22 3 2 21 -1.</_>
        <_>
          23 3 1 21 2.</_></rects>
      <tilted>0</tilted></_>
    <_>
      <rects>
        <_>
          22 17 2 6 -1.</_>
        <_>
          22 20 2 3 2.</_></rects>
      <tilted>0</tilted></_>
    <_>
      <rects>
        <_>
          22 18 2 4 -1.</_>
        <_>
          23 18 1 4 2.</_></rects>
      <tilted>0</tilted></_>
    <_>
      <rects>
        <_>
          22 20 1 4 -1.</_>
        <_>
          22 22 1 2 2.</_></rects>
      <tilted>0</tilted></_></features></cascade>
</opencv_storage>
